Language model created by QuickLM on Mon Apr 26 13:24:32 EDT 2021
Copyright (c) 1996-2010 Carnegie Mellon University and Alexander I. Rudnicky

The model is in standard ARPA format, designed by Doug Paul while he was at MITRE.

The code that was used to produce this language model is available in Open Source.
Please visit http://www.speech.cs.cmu.edu/tools/ for more information

The (fixed) discount mass is 0.5. The backoffs are computed using the ratio method.
This model based on a corpus of 6 sentences and 9 words

\data\
ngram 1=9
ngram 2=13
ngram 3=14

\1-grams:
-0.9700 </s> -0.3010
-0.9700 <s> -0.2518
-1.4472 CHROME -0.2518
-1.2711 CLOSE -0.2518
-1.4472 EDGE -0.2518
-1.4472 FIREFOX -0.2518
-1.4472 MICROSOFT -0.2852
-1.4472 MOZILLA -0.2852
-1.2711 OPEN -0.2518

\2-grams:
-0.6021 <s> CLOSE 0.0000
-0.6021 <s> OPEN 0.0000
-0.3010 CHROME </s> -0.3010
-0.7782 CLOSE CHROME 0.0000
-0.7782 CLOSE MICROSOFT 0.0000
-0.7782 CLOSE MOZILLA 0.0000
-0.3010 EDGE </s> -0.3010
-0.3010 FIREFOX </s> -0.3010
-0.3010 MICROSOFT EDGE 0.0000
-0.3010 MOZILLA FIREFOX 0.0000
-0.7782 OPEN CHROME 0.0000
-0.7782 OPEN MICROSOFT 0.0000
-0.7782 OPEN MOZILLA 0.0000

\3-grams:
-0.7782 <s> CLOSE CHROME
-0.7782 <s> CLOSE MICROSOFT
-0.7782 <s> CLOSE MOZILLA
-0.7782 <s> OPEN CHROME
-0.7782 <s> OPEN MICROSOFT
-0.7782 <s> OPEN MOZILLA
-0.3010 CLOSE CHROME </s>
-0.3010 CLOSE MICROSOFT EDGE
-0.3010 CLOSE MOZILLA FIREFOX
-0.3010 MICROSOFT EDGE </s>
-0.3010 MOZILLA FIREFOX </s>
-0.3010 OPEN CHROME </s>
-0.3010 OPEN MICROSOFT EDGE
-0.3010 OPEN MOZILLA FIREFOX

\end\